svm_type epsilon_svr
kernel_type rbf
gamma 1
nr_class 2
total_sv 274
rho 81.1112
SV
-100 1:0.645556 2:0.436292 
100 1:0.644492 2:0.624193 
100 1:0.59531 2:0.624193 
-51.68173125188065 1:0.594563 2:0.812094 
-100 1:0.595389 2:0.999994 
100 1:0.552922 2:0.624193 
-100 1:0.552721 2:0.812094 
-100 1:0.551966 2:0.999994 
100 1:0.513468 2:0.436292 
-100 1:0.516278 2:0.812094 
-100 1:0.515959 2:0.999994 
-100 1:0.661389 2:0.436292 
100 1:0.661662 2:0.624193 
-100 1:0.610023 2:0.436292 
100 1:0.610254 2:0.624193 
100 1:0.566286 2:0.624193 
-100 1:0.566409 2:0.812094 
-100 1:0.566718 2:0.999994 
100 1:0.527528 2:0.436292 
-100 1:0.528568 2:0.812094 
-100 1:0.528632 2:0.999994 
-100 1:0.69097 2:0.436292 
-100 1:0.691651 2:0.624193 
-100 1:0.637899 2:0.436292 
100 1:0.637441 2:0.624193 
-100 1:0.59133 2:0.436292 
100 1:0.591988 2:0.624193 
-100 1:0.591662 2:0.812094 
-100 1:0.592198 2:0.999994 
-100 1:0.551305 2:0.436292 
100 1:0.551737 2:0.624193 
-100 1:0.552342 2:0.812094 
-100 1:0.552163 2:0.999994 
-100 1:0.691259 2:0.436292 
100 1:0.691853 2:0.624193 
-100 1:0.637959 2:0.436292 
100 1:0.637585 2:0.624193 
-100 1:0.591287 2:0.436292 
100 1:0.592246 2:0.624193 
-100 1:0.591806 2:0.812094 
-100 1:0.592262 2:0.999994 
-100 1:0.551358 2:0.436292 
100 1:0.551854 2:0.624193 
-100 1:0.552546 2:0.812094 
-100 1:0.552336 2:0.999994 
-100 1:0.696492 2:0.436292 
100 1:0.697091 2:0.624193 
-100 1:0.642788 2:0.436292 
100 1:0.642412 2:0.624193 
-100 1:0.595763 2:0.436292 
100 1:0.596729 2:0.624193 
-19.06619623876882 1:0.596745 2:0.999994 
100 1:0.555532 2:0.436292 
100 1:0.556032 2:0.624193 
-100 1:0.556729 2:0.812094 
-100 1:0.556518 2:0.999994 
-100 1:0.717643 2:0.436292 
100 1:0.718939 2:0.624193 
100 1:0.720857 2:0.812094 
100 1:0.722287 2:0.999994 
-100 1:0.660996 2:0.436292 
100 1:0.662003 2:0.624193 
-100 1:0.613601 2:0.436292 
100 1:0.613535 2:0.624193 
-100 1:0.573064 2:0.436292 
100 1:0.572577 2:0.624193 
-100 1:0.572336 2:0.812094 
-100 1:0.573253 2:0.999994 
100 1:0.73454 2:0.624193 
100 1:0.734563 2:0.812094 
100 1:0.735265 2:0.999994 
100 1:0.67764 2:0.624193 
100 1:0.627722 2:0.436292 
100 1:0.628599 2:0.624193 
100 1:0.585811 2:0.436292 
100 1:0.586814 2:0.624193 
-100 1:0.587594 2:0.812094 
-100 1:0.588231 2:0.999994 
100 1:0.761442 2:0.999994 
-100 1:0.698933 2:0.436292 
100 1:0.698963 2:0.624193 
100 1:0.648813 2:0.624193 
100 1:0.605798 2:0.624193 
100 1:0.78229 2:0.624193 
100 1:0.783965 2:0.812094 
100 1:0.786151 2:0.999994 
-32.60089481612591 1:0.720456 2:0.436292 
100 1:0.720888 2:0.624193 
100 1:0.721664 2:0.812094 
100 1:0.723047 2:0.999994 
100 1:0.668735 2:0.624193 
100 1:0.624099 2:0.624193 
100 1:0.790376 2:0.624193 
100 1:0.792303 2:0.812094 
100 1:0.794386 2:0.999994 
100 1:0.728314 2:0.624193 
100 1:0.729088 2:0.812094 
100 1:0.73075 2:0.999994 
-100 1:0.675724 2:0.436292 
100 1:0.675898 2:0.624193 
100 1:0.630582 2:0.624193 
100 1:0.819477 2:0.624193 
100 1:0.821286 2:0.812094 
100 1:0.823467 2:0.999994 
100 1:0.755276 2:0.624193 
100 1:0.755911 2:0.812094 
100 1:0.757439 2:0.999994 
100 1:0.70035 2:0.436292 
100 1:0.700511 2:0.624193 
100 1:0.653547 2:0.624193 
100 1:0.833895 2:0.624193 
100 1:0.83552 2:0.812094 
100 1:0.83715 2:0.999994 
100 1:0.766964 2:0.624193 
100 1:0.768941 2:0.812094 
100 1:0.770336 2:0.999994 
-100 1:0.709906 2:0.436292 
100 1:0.710694 2:0.624193 
100 1:0.711688 2:0.812094 
100 1:0.713406 2:0.999994 
100 1:0.662289 2:0.624193 
-100 1:0.836063 2:0.624193 
-100 1:0.838108 2:0.812094 
-100 1:0.839951 2:0.999994 
-100 1:0.770186 2:0.624193 
-100 1:0.771187 2:0.812094 
-100 1:0.772916 2:0.999994 
-100 1:0.714447 2:0.436292 
-100 1:0.714317 2:0.624193 
-100 1:0.714846 2:0.812094 
-100 1:0.715695 2:0.999994 
-100 1:0.66654 2:0.812094 
-100 1:0.77507 2:0.624193 
-100 1:0.71726 2:0.436292 
-100 1:0.668707 2:0.436292 
100 1:0.669114 2:0.624193 
-100 1:0.846396 2:0.624193 
-100 1:0.847625 2:0.812094 
100 1:0.849604 2:0.999994 
100 1:0.780427 2:0.812094 
100 1:0.781471 2:0.999994 
-100 1:0.720558 2:0.436292 
100 1:0.720996 2:0.624193 
100 1:0.722334 2:0.812094 
100 1:0.724029 2:0.999994 
-100 1:0.671754 2:0.436292 
100 1:0.672256 2:0.624193 
25.69247800849319 1:0.870091 2:0.436292 
-100 1:0.872095 2:0.624193 
-100 1:0.873666 2:0.812094 
-100 1:0.87542 2:0.999994 
-100 1:0.802378 2:0.624193 
100 1:0.805431 2:0.999994 
-100 1:0.742062 2:0.436292 
100 1:0.74446 2:0.812094 
100 1:0.745937 2:0.999994 
-100 1:0.691804 2:0.436292 
100 1:0.692276 2:0.624193 
100 1:0.89279 2:0.436292 
-100 1:0.894707 2:0.624193 
-100 1:0.896234 2:0.812094 
-100 1:0.897819 2:0.999994 
-100 1:0.823259 2:0.624193 
100 1:0.824901 2:0.812094 
100 1:0.826211 2:0.999994 
100 1:0.762048 2:0.624193 
100 1:0.763807 2:0.812094 
100 1:0.765215 2:0.999994 
-100 1:0.709232 2:0.436292 
100 1:0.709976 2:0.624193 
100 1:0.710837 2:0.812094 
100 1:0.712366 2:0.999994 
100 1:0.896872 2:0.436292 
-100 1:0.900805 2:0.812094 
100 1:0.830472 2:0.999994 
100 1:0.766056 2:0.624193 
100 1:0.767482 2:0.812094 
100 1:0.769109 2:0.999994 
-100 1:0.713715 2:0.436292 
100 1:0.713846 2:0.624193 
100 1:0.714647 2:0.812094 
100 1:0.715877 2:0.999994 
100 1:0.928368 2:0.436292 
-100 1:0.931787 2:0.812094 
-100 1:0.935001 2:0.999994 
-100 1:0.85596 2:0.624193 
100 1:0.858866 2:0.999994 
100 1:0.794029 2:0.812094 
100 1:0.795262 2:0.999994 
-100 1:0.736811 2:0.436292 
100 1:0.737739 2:0.624193 
100 1:0.739272 2:0.812094 
100 1:0.740453 2:0.999994 
100 1:0.93771 2:0.436292 
-100 1:0.941209 2:0.812094 
-100 1:0.942925 2:0.999994 
-100 1:0.864603 2:0.624193 
-100 1:0.865668 2:0.812094 
-100 1:0.800145 2:0.624193 
100 1:0.802071 2:0.812094 
100 1:0.802999 2:0.999994 
-100 1:0.74448 2:0.436292 
100 1:0.744988 2:0.624193 
100 1:0.746321 2:0.812094 
100 1:0.747994 2:0.999994 
100 1:0.941913 2:0.436292 
-100 1:0.946363 2:0.812094 
-100 1:0.948961 2:0.999994 
-100 1:0.868474 2:0.624193 
-100 1:0.870177 2:0.812094 
-100 1:0.872242 2:0.999994 
-100 1:0.80429 2:0.624193 
-100 1:0.805664 2:0.812094 
-100 1:0.748147 2:0.436292 
-100 1:0.749067 2:0.624193 
100 1:0.750146 2:0.812094 
100 1:0.751331 2:0.999994 
100 1:0.954966 2:0.436292 
-100 1:0.958342 2:0.812094 
100 1:0.878513 2:0.436292 
-100 1:0.880486 2:0.624193 
-100 1:0.881727 2:0.812094 
-100 1:0.883369 2:0.999994 
100 1:0.760224 2:0.812094 
100 1:0.761699 2:0.999994 
100 1:0.96881 2:0.436292 
-100 1:0.974908 2:0.812094 
100 1:0.891391 2:0.436292 
-100 1:0.893057 2:0.624193 
-100 1:0.894859 2:0.812094 
-100 1:0.898206 2:0.999994 
-100 1:0.826852 2:0.624193 
-100 1:0.828285 2:0.812094 
-100 1:0.829842 2:0.999994 
-100 1:0.770429 2:0.624193 
-100 1:0.771035 2:0.812094 
-100 1:0.772282 2:0.999994 
100 1:0.975615 2:0.436292 
-100 1:0.981678 2:0.812094 
-100 1:0.982004 2:0.999994 
100 1:0.897693 2:0.436292 
-100 1:0.899279 2:0.624193 
-100 1:0.901502 2:0.812094 
-100 1:0.904428 2:0.999994 
-100 1:0.832658 2:0.624193 
-100 1:0.834022 2:0.812094 
100 1:0.83594 2:0.999994 
-100 1:0.775398 2:0.624193 
100 1:0.776412 2:0.812094 
100 1:0.777601 2:0.999994 
100 1:0.985886 2:0.436292 
100 1:0.907255 2:0.436292 
-100 1:0.908827 2:0.624193 
-22.34365570171788 1:0.910224 2:0.812094 
-100 1:0.841595 2:0.624193 
-100 1:0.842948 2:0.812094 
-100 1:0.84415 2:0.999994 
-100 1:0.783528 2:0.624193 
-100 1:0.78619 2:0.999994 
100 1:0.993002 2:0.436292 
100 1:0.995009 2:0.624193 
100 1:0.999992 2:0.999994 
100 1:0.913734 2:0.436292 
-100 1:0.847595 2:0.624193 
-100 1:0.849003 2:0.812094 
-100 1:0.850476 2:0.999994 
-100 1:0.789148 2:0.624193 
-100 1:0.79039 2:0.812094 
-100 1:0.791617 2:0.999994 
-100 1:0.736903 2:0.436292 
-100 1:0.737889 2:0.624193 
-100 1:0.73933 2:0.812094 
-100 1:0.740427 2:0.999994 
-100 1:0.692837 2:0.436292 
