svm_type epsilon_svr
kernel_type polynomial
degree 2
gamma 0.5
coef0 0
nr_class 2
total_sv 276
rho -105.656
SV
-100 1:1.73809 2:1.60944 
100 1:1.73523 2:2.30259 
-100 1:1.60369 2:1.60944 
100 1:1.60281 2:2.30259 
-100 1:1.48351 2:1.60944 
100 1:1.48869 2:2.30259 
-100 1:1.48611 2:3.68888 
-100 1:1.38917 2:3.68888 
-100 1:1.78072 2:1.60944 
100 1:1.78146 2:2.30259 
100 1:1.78248 2:2.99573 
-100 1:1.64243 2:1.60944 
100 1:1.64305 2:2.30259 
-100 1:1.52055 2:1.60944 
100 1:1.52467 2:2.30259 
-100 1:1.52583 2:3.68888 
100 1:1.42032 2:1.60944 
-100 1:1.42329 2:3.68888 
-100 1:1.86037 2:1.60944 
-100 1:1.8622 2:2.30259 
100 1:1.86532 2:2.99573 
-100 1:1.71748 2:1.60944 
100 1:1.71625 2:2.30259 
-100 1:1.5921 2:1.60944 
100 1:1.59387 2:2.30259 
-100 1:1.48433 2:1.60944 
-100 1:1.48664 2:3.68888 
-100 1:1.86115 2:1.60944 
100 1:1.86275 2:2.30259 
100 1:1.86575 2:2.99573 
-100 1:1.71764 2:1.60944 
100 1:1.71663 2:2.30259 
-100 1:1.59198 2:1.60944 
100 1:1.59456 2:2.30259 
-100 1:1.48448 2:1.60944 
37.42700054284455 1:1.48581 2:2.30259 
-100 1:1.48711 2:3.68888 
-100 1:1.87524 2:1.60944 
100 1:1.87685 2:2.30259 
100 1:1.87987 2:2.99573 
-100 1:1.73064 2:1.60944 
100 1:1.72963 2:2.30259 
-100 1:1.60403 2:1.60944 
100 1:1.60663 2:2.30259 
-100 1:1.49571 2:1.60944 
100 1:1.49706 2:2.30259 
-100 1:1.49837 2:3.68888 
-100 1:1.93218 2:1.60944 
100 1:1.93567 2:2.30259 
100 1:1.94083 2:2.99573 
-100 1:1.77967 2:1.60944 
100 1:1.78238 2:2.30259 
100 1:1.78532 2:2.99573 
-100 1:1.65206 2:1.60944 
100 1:1.65188 2:2.30259 
-100 1:1.54292 2:1.60944 
100 1:1.54161 2:2.30259 
-100 1:1.54343 2:3.68888 
100 1:1.97767 2:2.30259 
100 1:1.97774 2:2.99573 
-100 1:1.8227 2:1.60944 
100 1:1.82448 2:2.30259 
100 1:1.82504 2:2.99573 
100 1:1.69244 2:2.30259 
100 1:1.57994 2:2.30259 
-12.66802741749042 1:1.58375 2:3.68888 
-100 1:2.03962 2:1.60944 
100 1:2.04233 2:2.30259 
100 1:2.05011 2:3.68888 
-100 1:1.88181 2:1.60944 
100 1:1.88189 2:2.30259 
100 1:1.88393 2:2.99573 
-100 1:1.74824 2:1.60944 
100 1:1.74686 2:2.30259 
-100 1:1.6286 2:1.60944 
100 1:1.63105 2:2.30259 
-100 1:2.10395 2:1.60944 
100 1:2.10624 2:2.30259 
100 1:2.11075 2:2.99573 
100 1:2.11663 2:3.68888 
-100 1:1.93976 2:1.60944 
100 1:1.94092 2:2.30259 
100 1:1.94301 2:2.99573 
-100 1:1.80038 2:1.60944 
100 1:1.8005 2:2.30259 
100 1:1.80183 2:2.99573 
-100 1:1.67904 2:1.60944 
100 1:1.68033 2:2.30259 
100 1:2.12801 2:2.30259 
100 1:2.1332 2:2.99573 
100 1:2.13881 2:3.68888 
-100 1:1.96022 2:1.60944 
100 1:1.96091 2:2.30259 
100 1:1.963 2:2.99573 
-100 1:1.81932 2:1.60944 
100 1:1.81979 2:2.30259 
100 1:1.82032 2:2.99573 
-100 1:1.69696 2:1.60944 
100 1:1.69778 2:2.30259 
100 1:2.20636 2:2.30259 
100 1:2.21123 2:2.99573 
100 1:2.0335 2:2.30259 
100 1:2.03521 2:2.99573 
100 1:1.88606 2:2.30259 
100 1:1.88731 2:2.99573 
-100 1:1.75887 2:1.60944 
100 1:1.75961 2:2.30259 
100 1:2.24518 2:2.30259 
100 1:2.24955 2:2.99573 
100 1:2.25394 2:3.68888 
-100 1:2.06188 2:1.60944 
100 1:2.06497 2:2.30259 
100 1:2.0703 2:2.99573 
100 1:2.07405 2:3.68888 
-100 1:1.91135 2:1.60944 
100 1:1.91347 2:2.30259 
100 1:1.91615 2:2.99573 
-100 1:1.78373 2:1.60944 
100 1:1.78315 2:2.30259 
100 1:1.78514 2:2.99573 
-100 1:2.25102 2:2.30259 
-100 1:2.25652 2:2.99573 
-100 1:2.26148 2:3.68888 
-100 1:2.07201 2:1.60944 
-100 1:2.07365 2:2.30259 
-100 1:2.07634 2:2.99573 
-100 1:2.081 2:3.68888 
-100 1:1.92358 2:1.60944 
-100 1:1.92465 2:2.99573 
-100 1:1.92694 2:3.68888 
-100 1:1.7948 2:1.60944 
-100 1:2.27739 2:3.68888 
-100 1:2.08287 2:1.60944 
-100 1:1.93115 2:1.60944 
-100 1:1.94089 2:3.68888 
-100 1:1.80043 2:1.60944 
100 1:1.80152 2:2.30259 
100 1:1.80322 2:2.99573 
-100 1:2.27884 2:2.30259 
-100 1:2.28214 2:2.99573 
100 1:2.28747 2:3.68888 
-100 1:2.09173 2:1.60944 
100 1:2.10122 2:2.99573 
100 1:2.10403 2:3.68888 
-100 1:1.94003 2:1.60944 
100 1:1.94121 2:2.30259 
100 1:1.94481 2:2.99573 
-100 1:1.80863 2:1.60944 
100 1:1.80998 2:2.30259 
100 1:1.81094 2:2.99573 
100 1:2.34263 2:1.60944 
-100 1:2.34803 2:2.30259 
-100 1:2.35226 2:2.99573 
-100 1:2.35698 2:3.68888 
-100 1:2.16032 2:2.30259 
100 1:2.16854 2:3.68888 
-100 1:1.99793 2:1.60944 
100 1:2.00438 2:2.99573 
-100 1:1.86261 2:1.60944 
100 1:1.86388 2:2.30259 
100 1:1.86589 2:2.99573 
100 1:2.40375 2:1.60944 
-100 1:2.41302 2:2.99573 
-100 1:2.41729 2:3.68888 
-100 1:2.21654 2:2.30259 
100 1:2.22096 2:2.99573 
-100 1:2.04904 2:1.60944 
100 1:2.05174 2:2.30259 
100 1:2.05647 2:2.99573 
100 1:2.06027 2:3.68888 
-100 1:1.90953 2:1.60944 
100 1:1.91154 2:2.30259 
100 1:1.91386 2:2.99573 
100 1:2.41474 2:1.60944 
-100 1:2.42533 2:2.99573 
-100 1:2.42992 2:3.68888 
-100 1:2.06012 2:1.60944 
100 1:2.06253 2:2.30259 
100 1:2.06637 2:2.99573 
100 1:2.07075 2:3.68888 
-100 1:1.92161 2:1.60944 
100 1:1.92196 2:2.30259 
100 1:1.92412 2:2.99573 
100 1:2.49954 2:1.60944 
-100 1:2.50874 2:2.99573 
-100 1:2.5174 2:3.68888 
100 1:2.30032 2:1.60944 
-100 1:2.30459 2:2.30259 
100 1:2.31241 2:3.68888 
-13.69950567479858 1:2.12942 2:1.60944 
100 1:2.13784 2:2.99573 
100 1:2.14116 2:3.68888 
-100 1:1.98379 2:1.60944 
100 1:1.98629 2:2.30259 
100 1:1.99042 2:2.99573 
100 1:2.52469 2:1.60944 
100 1:2.52811 2:2.30259 
-100 1:2.53411 2:2.99573 
-100 1:2.53873 2:3.68888 
100 1:2.32182 2:1.60944 
-100 1:2.33072 2:2.99573 
-100 1:2.33586 2:3.68888 
100 1:2.1595 2:2.99573 
100 1:2.16199 2:3.68888 
-100 1:2.00444 2:1.60944 
100 1:2.0058 2:2.30259 
100 1:2.00939 2:2.99573 
100 1:2.53601 2:1.60944 
100 1:2.54144 2:2.30259 
-100 1:2.54799 2:2.99573 
-100 1:2.55498 2:3.68888 
100 1:2.334 2:1.60944 
-100 1:2.33828 2:2.30259 
-100 1:2.34286 2:2.99573 
-100 1:2.34842 2:3.68888 
-100 1:2.16547 2:2.30259 
-100 1:2.16917 2:2.99573 
-100 1:2.1731 2:3.68888 
-100 1:2.01431 2:1.60944 
-100 1:2.01679 2:2.30259 
100 1:2.01969 2:2.99573 
100 1:2.57115 2:1.60944 
100 1:2.57508 2:2.30259 
-100 1:2.58753 2:3.68888 
100 1:2.36531 2:1.60944 
-100 1:2.37396 2:2.99573 
-100 1:2.37838 2:3.68888 
-100 1:2.202 2:3.68888 
-100 1:2.04084 2:1.60944 
100 1:2.04683 2:2.99573 
100 1:2.60842 2:1.60944 
100 1:2.61418 2:2.30259 
-11.05946745055605 1:2.62484 2:2.99573 
-100 1:2.62639 2:3.68888 
100 1:2.39998 2:1.60944 
-100 1:2.40932 2:2.99573 
-100 1:2.41833 2:3.68888 
-100 1:2.22622 2:2.30259 
-100 1:2.23008 2:2.99573 
-100 1:2.23427 2:3.68888 
-100 1:2.06889 2:1.60944 
-100 1:2.0743 2:2.30259 
-100 1:2.07594 2:2.99573 
-100 1:2.07929 2:3.68888 
100 1:2.62675 2:1.60944 
100 1:2.63379 2:2.30259 
-100 1:2.64395 2:3.68888 
100 1:2.41695 2:1.60944 
-100 1:2.4272 2:2.99573 
-100 1:2.43508 2:3.68888 
-100 1:2.24185 2:2.30259 
-100 1:2.24552 2:2.99573 
-100 1:2.08318 2:1.60944 
-100 1:2.08768 2:2.30259 
100 1:2.09041 2:2.99573 
100 1:2.09361 2:3.68888 
100 1:2.6544 2:1.60944 
100 1:2.65883 2:2.30259 
100 1:2.44269 2:1.60944 
-100 1:2.26955 2:2.99573 
-100 1:2.10957 2:2.30259 
100 1:2.67356 2:1.60944 
100 1:2.67896 2:2.30259 
-100 1:2.69238 2:3.68888 
100 1:2.46014 2:1.60944 
100 1:2.46452 2:2.30259 
-100 1:2.45972 2:3.68888 
-100 1:2.28585 2:2.99573 
-100 1:2.28982 2:3.68888 
-100 1:2.12027 2:1.60944 
-100 1:2.12805 2:2.99573 
-100 1:2.13135 2:3.68888 
-100 1:1.98404 2:1.60944 
-100 1:1.99353 2:3.68888 
-100 1:1.8654 2:1.60944 
100 1:1.869 2:2.99573 
